#pragma once
#include <cstdarg>
namespace Eloquent {
    namespace ML {
        namespace Port {
            class RandomForestRegressor2 {
                public:
                    /**
                    * Predict class for features vector
                    */
                    float predict_output2(float *x) {
                        float y_pred = 0;
                        // tree #1
                        if (x[2] <= 94.83333206176758) {
                            if (x[2] <= 41.88888931274414) {
                                if (x[4] <= 39.66666793823242) {
                                    y_pred += 23.63012386668812;
                                }

                                else {
                                    y_pred += 41.23954677581787;
                                }
                            }

                            else {
                                if (x[0] <= 74.5) {
                                    y_pred += 89.68806658293072;
                                }

                                else {
                                    y_pred += 64.39224785252621;
                                }
                            }
                        }

                        else {
                            if (x[4] <= 258.2638854980469) {
                                if (x[0] <= 48.5) {
                                    y_pred += 149.41426908052884;
                                }

                                else {
                                    y_pred += 119.90140315464565;
                                }
                            }

                            else {
                                if (x[3] <= 239.18055725097656) {
                                    y_pred += 170.95301240066001;
                                }

                                else {
                                    y_pred += 204.1400892469618;
                                }
                            }
                        }

                        // tree #2
                        if (x[1] <= 99.28472137451172) {
                            if (x[0] <= 93.5) {
                                if (x[3] <= 62.4444465637207) {
                                    y_pred += 57.29985491434733;
                                }

                                else {
                                    y_pred += 80.80306650797526;
                                }
                            }

                            else {
                                if (x[2] <= 22.13888931274414) {
                                    y_pred += 21.71577424269456;
                                }

                                else {
                                    y_pred += 36.700727224349976;
                                }
                            }
                        }

                        else {
                            if (x[0] <= 46.5) {
                                if (x[1] <= 224.66666412353516) {
                                    y_pred += 160.29899918405633;
                                }

                                else {
                                    y_pred += 183.07087868138365;
                                }
                            }

                            else {
                                if (x[3] <= 117.72222137451172) {
                                    y_pred += 104.62911752554086;
                                }

                                else {
                                    y_pred += 129.3657440185547;
                                }
                            }
                        }

                        // tree #3
                        if (x[3] <= 96.88888549804688) {
                            if (x[0] <= 95.5) {
                                if (x[3] <= 64.0) {
                                    y_pred += 58.621741118254484;
                                }

                                else {
                                    y_pred += 82.48708482222123;
                                }
                            }

                            else {
                                if (x[0] <= 118.5) {
                                    y_pred += 34.240247631073;
                                }

                                else {
                                    y_pred += 22.038686131322105;
                                }
                            }
                        }

                        else {
                            if (x[3] <= 147.44444274902344) {
                                if (x[2] <= 108.97222137451172) {
                                    y_pred += 109.61113929748535;
                                }

                                else {
                                    y_pred += 122.73021545410157;
                                }
                            }

                            else {
                                if (x[3] <= 211.25) {
                                    y_pred += 161.77741149902343;
                                }

                                else {
                                    y_pred += 180.72653395129788;
                                }
                            }
                        }

                        // tree #4
                        if (x[0] <= 58.5) {
                            if (x[0] <= 46.5) {
                                if (x[1] <= 239.90972137451172) {
                                    y_pred += 167.43145200039478;
                                }

                                else {
                                    y_pred += 199.27592010498046;
                                }
                            }

                            else {
                                if (x[2] <= 117.22222137451172) {
                                    y_pred += 114.7953360421317;
                                }

                                else {
                                    y_pred += 129.0319709777832;
                                }
                            }
                        }

                        else {
                            if (x[2] <= 47.33333396911621) {
                                if (x[2] <= 25.222222328186035) {
                                    y_pred += 21.305932998657227;
                                }

                                else {
                                    y_pred += 42.15529251098633;
                                }
                            }

                            else {
                                if (x[2] <= 67.94444274902344) {
                                    y_pred += 67.24146890640259;
                                }

                                else {
                                    y_pred += 92.5056614595301;
                                }
                            }
                        }

                        // tree #5
                        if (x[2] <= 94.83333206176758) {
                            if (x[2] <= 48.02083396911621) {
                                if (x[1] <= 37.61111068725586) {
                                    y_pred += 22.14671870144931;
                                }

                                else {
                                    y_pred += 42.83045973096575;
                                }
                            }

                            else {
                                if (x[0] <= 72.5) {
                                    y_pred += 92.69096088409424;
                                }

                                else {
                                    y_pred += 69.77719847361247;
                                }
                            }
                        }

                        else {
                            if (x[4] <= 257.55555725097656) {
                                if (x[3] <= 146.41666412353516) {
                                    y_pred += 119.22591739230685;
                                }

                                else {
                                    y_pred += 150.97313435872397;
                                }
                            }

                            else {
                                if (x[3] <= 239.66666412353516) {
                                    y_pred += 171.71993446350098;
                                }

                                else {
                                    y_pred += 202.15961565290178;
                                }
                            }
                        }

                        // tree #6
                        if (x[0] <= 57.5) {
                            if (x[4] <= 257.91666412353516) {
                                if (x[0] <= 46.0) {
                                    y_pred += 152.5600869315011;
                                }

                                else {
                                    y_pred += 126.80978393554688;
                                }
                            }

                            else {
                                if (x[3] <= 239.18055725097656) {
                                    y_pred += 172.8825217352973;
                                }

                                else {
                                    y_pred += 204.3802032470703;
                                }
                            }
                        }

                        else {
                            if (x[0] <= 89.0) {
                                if (x[3] <= 61.61111068725586) {
                                    y_pred += 59.72806795905618;
                                }

                                else {
                                    y_pred += 88.99186882605919;
                                }
                            }

                            else {
                                if (x[3] <= 28.159722328186035) {
                                    y_pred += 23.866231600443523;
                                }

                                else {
                                    y_pred += 41.57543695384059;
                                }
                            }
                        }

                        // tree #7
                        if (x[2] <= 90.13194274902344) {
                            if (x[0] <= 96.0) {
                                if (x[4] <= 81.27777862548828) {
                                    y_pred += 56.37218408999236;
                                }

                                else {
                                    y_pred += 85.7810910542806;
                                }
                            }

                            else {
                                if (x[1] <= 32.72222137451172) {
                                    y_pred += 21.70071212105129;
                                }

                                else {
                                    y_pred += 33.94067110334124;
                                }
                            }
                        }

                        else {
                            if (x[2] <= 146.1666717529297) {
                                if (x[3] <= 108.39583206176758) {
                                    y_pred += 102.55303344726562;
                                }

                                else {
                                    y_pred += 124.23592376708984;
                                }
                            }

                            else {
                                if (x[1] <= 238.72222137451172) {
                                    y_pred += 165.4765655517578;
                                }

                                else {
                                    y_pred += 203.38287353515625;
                                }
                            }
                        }

                        // tree #8
                        if (x[0] <= 59.5) {
                            if (x[0] <= 47.0) {
                                if (x[1] <= 236.05555725097656) {
                                    y_pred += 164.52988882625803;
                                }

                                else {
                                    y_pred += 195.94042641775948;
                                }
                            }

                            else {
                                if (x[1] <= 137.05555725097656) {
                                    y_pred += 114.24526045057509;
                                }

                                else {
                                    y_pred += 130.57872009277344;
                                }
                            }
                        }

                        else {
                            if (x[1] <= 57.77777862548828) {
                                if (x[4] <= 39.66666793823242) {
                                    y_pred += 22.456655954910538;
                                }

                                else {
                                    y_pred += 42.635353565216064;
                                }
                            }

                            else {
                                if (x[4] <= 85.09722137451172) {
                                    y_pred += 63.10655212402344;
                                }

                                else {
                                    y_pred += 88.94134162454044;
                                }
                            }
                        }

                        return y_pred / 8;
                    }

                protected:
                };
            }
        }
    }