#pragma once
#include <cstdarg>
namespace Eloquent {
    namespace ML {
        namespace Port {
            class RandomForestRegressor1 {
                public:
                    /**
                    * Predict class for features vector
                    */
                    float predict_output1(float *x) {
                        float y_pred = 0;
                        // tree #1
                        if (x[0] <= 81.5) {
                            if (x[2] <= 175.91666412353516) {
                                if (x[1] <= 103.61111068725586) {
                                    y_pred += 71.40159352620442;
                                }

                                else {
                                    y_pred += 51.22053226671721;
                                }
                            }

                            else {
                                if (x[0] <= 20.5) {
                                    y_pred += 7.991189738978511;
                                }

                                else {
                                    y_pred += 31.791689968109132;
                                }
                            }
                        }

                        else {
                            if (x[4] <= 32.88888931274414) {
                                if (x[0] <= 148.5) {
                                    y_pred += 137.6533970079924;
                                }

                                else {
                                    y_pred += 159.3265781402588;
                                }
                            }

                            else {
                                if (x[0] <= 102.5) {
                                    y_pred += 90.92352711070667;
                                }

                                else {
                                    y_pred += 114.03712027413505;
                                }
                            }
                        }

                        // tree #2
                        if (x[1] <= 57.27777862548828) {
                            if (x[0] <= 129.0) {
                                if (x[3] <= 26.333333015441895) {
                                    y_pred += 119.57750657025505;
                                }

                                else {
                                    y_pred += 100.31715046275745;
                                }
                            }

                            else {
                                if (x[0] <= 150.0) {
                                    y_pred += 137.05137501592222;
                                }

                                else {
                                    y_pred += 162.16589864095053;
                                }
                            }
                        }

                        else {
                            if (x[0] <= 46.5) {
                                if (x[0] <= 23.0) {
                                    y_pred += 11.092050070112402;
                                }

                                else {
                                    y_pred += 33.67051601409912;
                                }
                            }

                            else {
                                if (x[3] <= 74.5) {
                                    y_pred += 80.90226414998372;
                                }

                                else {
                                    y_pred += 58.7551561438519;
                                }
                            }
                        }

                        // tree #3
                        if (x[3] <= 57.77777862548828) {
                            if (x[0] <= 125.5) {
                                if (x[3] <= 33.0) {
                                    y_pred += 113.97479982729311;
                                }

                                else {
                                    y_pred += 87.38971182016226;
                                }
                            }

                            else {
                                if (x[0] <= 153.0) {
                                    y_pred += 138.3233354356554;
                                }

                                else {
                                    y_pred += 164.73455098470052;
                                }
                            }
                        }

                        else {
                            if (x[2] <= 163.08333587646484) {
                                if (x[2] <= 84.66666412353516) {
                                    y_pred += 73.55392510550362;
                                }

                                else {
                                    y_pred += 52.04116640592876;
                                }
                            }

                            else {
                                if (x[0] <= 24.0) {
                                    y_pred += 15.662558661566841;
                                }

                                else {
                                    y_pred += 32.87520225524902;
                                }
                            }
                        }

                        // tree #4
                        if (x[0] <= 81.5) {
                            if (x[0] <= 40.0) {
                                if (x[0] <= 20.5) {
                                    y_pred += 8.010131846774708;
                                }

                                else {
                                    y_pred += 30.199345292716192;
                                }
                            }

                            else {
                                if (x[2] <= 94.83333206176758) {
                                    y_pred += 67.34673309326172;
                                }

                                else {
                                    y_pred += 49.30454186832203;
                                }
                            }
                        }

                        else {
                            if (x[0] <= 124.5) {
                                if (x[2] <= 30.055556297302246) {
                                    y_pred += 111.68571090698242;
                                }

                                else {
                                    y_pred += 92.98859332856678;
                                }
                            }

                            else {
                                if (x[0] <= 147.5) {
                                    y_pred += 137.43366453382703;
                                }

                                else {
                                    y_pred += 157.76886333118784;
                                }
                            }
                        }

                        // tree #5
                        if (x[2] <= 44.63194465637207) {
                            if (x[3] <= 19.11111068725586) {
                                if (x[0] <= 149.0) {
                                    y_pred += 138.8968448638916;
                                }

                                else {
                                    y_pred += 160.77469380696616;
                                }
                            }

                            else {
                                if (x[0] <= 110.5) {
                                    y_pred += 98.564698961046;
                                }

                                else {
                                    y_pred += 121.64683405558269;
                                }
                            }
                        }

                        else {
                            if (x[0] <= 42.5) {
                                if (x[0] <= 21.0) {
                                    y_pred += 8.47736960963199;
                                }

                                else {
                                    y_pred += 31.754220460590563;
                                }
                            }

                            else {
                                if (x[3] <= 87.25694274902344) {
                                    y_pred += 73.46232727050781;
                                }

                                else {
                                    y_pred += 55.52787516667293;
                                }
                            }
                        }

                        // tree #6
                        if (x[0] <= 74.0) {
                            if (x[2] <= 191.77777862548828) {
                                if (x[0] <= 57.5) {
                                    y_pred += 47.78235177432789;
                                }

                                else {
                                    y_pred += 65.84425767262776;
                                }
                            }

                            else {
                                if (x[0] <= 20.5) {
                                    y_pred += 11.00768539806207;
                                }

                                else {
                                    y_pred += 29.035962892615277;
                                }
                            }
                        }

                        else {
                            if (x[0] <= 122.5) {
                                if (x[3] <= 35.55555534362793) {
                                    y_pred += 108.08767765590123;
                                }

                                else {
                                    y_pred += 87.17591421944755;
                                }
                            }

                            else {
                                if (x[0] <= 145.5) {
                                    y_pred += 133.57646221584744;
                                }

                                else {
                                    y_pred += 155.1422620500837;
                                }
                            }
                        }

                        // tree #7
                        if (x[2] <= 44.79861068725586) {
                            if (x[0] <= 126.5) {
                                if (x[4] <= 41.09027862548828) {
                                    y_pred += 118.33930145263672;
                                }

                                else {
                                    y_pred += 95.35143440648129;
                                }
                            }

                            else {
                                if (x[0] <= 147.5) {
                                    y_pred += 135.4838169945611;
                                }

                                else {
                                    y_pred += 159.9894801548549;
                                }
                            }
                        }

                        else {
                            if (x[2] <= 146.1666717529297) {
                                if (x[3] <= 74.5) {
                                    y_pred += 79.89788150787354;
                                }

                                else {
                                    y_pred += 59.188486099243164;
                                }
                            }

                            else {
                                if (x[0] <= 25.0) {
                                    y_pred += 12.239157730340958;
                                }

                                else {
                                    y_pred += 37.6444480078561;
                                }
                            }
                        }

                        // tree #8
                        if (x[0] <= 83.5) {
                            if (x[0] <= 40.0) {
                                if (x[0] <= 20.5) {
                                    y_pred += 9.124271368980407;
                                }

                                else {
                                    y_pred += 31.55655641555786;
                                }
                            }

                            else {
                                if (x[1] <= 104.84027862548828) {
                                    y_pred += 71.06500571114677;
                                }

                                else {
                                    y_pred += 50.2346183458964;
                                }
                            }
                        }

                        else {
                            if (x[1] <= 32.05555438995361) {
                                if (x[0] <= 146.5) {
                                    y_pred += 134.47671023282138;
                                }

                                else {
                                    y_pred += 159.1681728363037;
                                }
                            }

                            else {
                                if (x[4] <= 43.5) {
                                    y_pred += 112.26597510443793;
                                }

                                else {
                                    y_pred += 94.49839782714844;
                                }
                            }
                        }

                        return y_pred / 8;
                    }

                protected:
                };
            }
        }
    }