#pragma once
#include <cstdarg>
namespace Eloquent {
    namespace ML {
        namespace Port {
            class RandomForestRegressor {
                public:
                    /**
                    * Predict class for features vector
                    */
                    float predict(float *x) {
                        float y_pred = 0;
                        // tree #1
                        if (x[1] <= 108.67222213745117) {
                            if (x[0] <= 89.5) {
                                if (x[3] <= 60.60222244262695) {
                                    y_pred += 64.40210282175164;
                                }

                                else {
                                    y_pred += 89.67107070119758;
                                }
                            }

                            else {
                                if (x[1] <= 23.086389541625977) {
                                    y_pred += 23.43271047097665;
                                }

                                else {
                                    y_pred += 40.85213379632859;
                                }
                            }
                        }

                        else {
                            if (x[3] <= 200.50499725341797) {
                                if (x[0] <= 46.5) {
                                    y_pred += 154.00484258478338;
                                }

                                else {
                                    y_pred += 125.1474624633789;
                                }
                            }

                            else {
                                if (x[1] <= 251.56395721435547) {
                                    y_pred += 171.50891167776925;
                                }

                                else {
                                    y_pred += 203.74531724717883;
                                }
                            }
                        }

                        // tree #2
                        if (x[2] <= 78.37777709960938) {
                            if (x[0] <= 93.5) {
                                if (x[2] <= 50.60111045837402) {
                                    y_pred += 57.29464213053385;
                                }

                                else {
                                    y_pred += 80.79625854492187;
                                }
                            }

                            else {
                                if (x[0] <= 119.0) {
                                    y_pred += 36.388603363037106;
                                }

                                else {
                                    y_pred += 21.547770182291668;
                                }
                            }
                        }

                        else {
                            if (x[2] <= 151.15750122070312) {
                                if (x[0] <= 54.5) {
                                    y_pred += 129.35668029785157;
                                }

                                else {
                                    y_pred += 104.59950549785907;
                                }
                            }

                            else {
                                if (x[3] <= 213.44312286376953) {
                                    y_pred += 156.02488985928622;
                                }

                                else {
                                    y_pred += 179.933267098886;
                                }
                            }
                        }

                        // tree #3
                        if (x[0] <= 60.5) {
                            if (x[2] <= 142.35375213623047) {
                                if (x[3] <= 124.25444412231445) {
                                    y_pred += 109.59905624389648;
                                }

                                else {
                                    y_pred += 122.72506103515624;
                                }
                            }

                            else {
                                if (x[1] <= 221.5961151123047) {
                                    y_pred += 156.3552474975586;
                                }

                                else {
                                    y_pred += 179.54117220924013;
                                }
                            }
                        }

                        else {
                            if (x[2] <= 30.835556030273438) {
                                if (x[2] <= 16.934444427490234) {
                                    y_pred += 21.984646065290583;
                                }

                                else {
                                    y_pred += 34.35500583648682;
                                }
                            }

                            else {
                                if (x[3] <= 56.64500045776367) {
                                    y_pred += 58.61892742580838;
                                }

                                else {
                                    y_pred += 82.69097831032492;
                                }
                            }
                        }

                        // tree #4
                        if (x[2] <= 93.4803466796875) {
                            if (x[1] <= 47.34833335876465) {
                                if (x[0] <= 110.0) {
                                    y_pred += 42.13912832325902;
                                }

                                else {
                                    y_pred += 21.209217616489955;
                                }
                            }

                            else {
                                if (x[3] <= 65.08680725097656) {
                                    y_pred += 67.24094438552856;
                                }

                                else {
                                    y_pred += 92.63759074491612;
                                }
                            }
                        }

                        else {
                            if (x[2] <= 151.40833282470703) {
                                if (x[3] <= 136.0834732055664) {
                                    y_pred += 114.79629625592914;
                                }

                                else {
                                    y_pred += 129.04095077514648;
                                }
                            }

                            else {
                                if (x[1] <= 252.79006958007812) {
                                    y_pred += 167.9041805267334;
                                }

                                else {
                                    y_pred += 200.39296298556857;
                                }
                            }
                        }

                        // tree #5
                        if (x[3] <= 104.8577766418457) {
                            if (x[1] <= 47.64867973327637) {
                                if (x[0] <= 110.5) {
                                    y_pred += 42.810528891427175;
                                }

                                else {
                                    y_pred += 22.023710285533557;
                                }
                            }

                            else {
                                if (x[1] <= 69.62458419799805) {
                                    y_pred += 69.77322959899902;
                                }

                                else {
                                    y_pred += 92.96060307820638;
                                }
                            }
                        }

                        else {
                            if (x[3] <= 193.38180541992188) {
                                if (x[0] <= 48.5) {
                                    y_pred += 150.66010769930753;
                                }

                                else {
                                    y_pred += 119.21348063151042;
                                }
                            }

                            else {
                                if (x[3] <= 242.41222381591797) {
                                    y_pred += 171.24142578125;
                                }

                                else {
                                    y_pred += 201.65370614188058;
                                }
                            }
                        }

                        // tree #6
                        if (x[3] <= 108.51506805419922) {
                            if (x[3] <= 40.235416412353516) {
                                if (x[3] <= 20.567777633666992) {
                                    y_pred += 23.214695103963216;
                                }

                                else {
                                    y_pred += 40.8272602558136;
                                }
                            }

                            else {
                                if (x[1] <= 60.815208435058594) {
                                    y_pred += 59.72853178136489;
                                }

                                else {
                                    y_pred += 88.98744025597206;
                                }
                            }
                        }

                        else {
                            if (x[1] <= 221.5961151123047) {
                                if (x[2] <= 154.57389068603516) {
                                    y_pred += 126.78998413085938;
                                }

                                else {
                                    y_pred += 156.3185920715332;
                                }
                            }

                            else {
                                if (x[1] <= 250.73944091796875) {
                                    y_pred += 175.32401890908517;
                                }

                                else {
                                    y_pred += 204.21986944025213;
                                }
                            }
                        }

                        // tree #7
                        if (x[0] <= 61.5) {
                            if (x[2] <= 152.80166625976562) {
                                if (x[1] <= 119.2524299621582) {
                                    y_pred += 102.55941772460938;
                                }

                                else {
                                    y_pred += 124.24869428362165;
                                }
                            }

                            else {
                                if (x[3] <= 233.4977798461914) {
                                    y_pred += 166.88593996488132;
                                }

                                else {
                                    y_pred += 205.37105178833008;
                                }
                            }
                        }

                        else {
                            if (x[1] <= 37.06166648864746) {
                                if (x[0] <= 113.0) {
                                    y_pred += 38.6673469543457;
                                }

                                else {
                                    y_pred += 22.60894347459842;
                                }
                            }

                            else {
                                if (x[1] <= 59.81277847290039) {
                                    y_pred += 57.37694549560547;
                                }

                                else {
                                    y_pred += 85.97680600484212;
                                }
                            }
                        }

                        // tree #8
                        if (x[0] <= 59.5) {
                            if (x[0] <= 47.0) {
                                if (x[1] <= 251.56395721435547) {
                                    y_pred += 166.90744540565893;
                                }

                                else {
                                    y_pred += 201.4703582763672;
                                }
                            }

                            else {
                                if (x[1] <= 147.43499755859375) {
                                    y_pred += 114.23436652289496;
                                }

                                else {
                                    y_pred += 130.586083984375;
                                }
                            }
                        }

                        else {
                            if (x[3] <= 41.32777786254883) {
                                if (x[2] <= 20.327777862548828) {
                                    y_pred += 22.211369564658717;
                                }

                                else {
                                    y_pred += 41.92856612572303;
                                }
                            }

                            else {
                                if (x[2] <= 55.58687400817871) {
                                    y_pred += 63.12096065945096;
                                }

                                else {
                                    y_pred += 88.92937963149127;
                                }
                            }
                        }

                        return y_pred / 8;
                    }

                protected:
                };
            }
        }
    }