#pragma once
#include <cstdarg>
namespace Eloquent {
    namespace ML {
        namespace Port {
            class RandomForestRegressor {
                public:
                    /**
                    * Predict class for features vector
                    */
                    float predict(float *x) {
                        float y_pred = 0;
                        // tree #1
                        if (x[1] <= -0.16013554856181145) {
                            if (x[1] <= -0.7754114866256714) {
                                if (x[3] <= -0.8610313832759857) {
                                    y_pred += 0.24825354053158621;
                                }

                                else {
                                    y_pred += 0.023886934960749173;
                                }
                            }

                            else {
                                if (x[0] <= 0.08468877896666527) {
                                    y_pred += -0.1809337446650293;
                                }

                                else {
                                    y_pred += -0.13410201172158104;
                                }
                            }
                        }

                        else {
                            if (x[0] <= -0.8294123113155365) {
                                if (x[0] <= -1.113799273967743) {
                                    y_pred += 0.06442904170059083;
                                }

                                else {
                                    y_pred += 0.13475118574936312;
                                }
                            }

                            else {
                                if (x[3] <= 0.29908426851034164) {
                                    y_pred += -0.10735007784759888;
                                }

                                else {
                                    y_pred += 0.09415596719091052;
                                }
                            }
                        }

                        // tree #2
                        if (x[0] <= -0.41298846900463104) {
                            if (x[2] <= 1.1185737550258636) {
                                if (x[1] <= 0.6178393363952637) {
                                    y_pred += -0.02520534348049802;
                                }

                                else {
                                    y_pred += 0.13244058235743833;
                                }
                            }

                            else {
                                if (x[1] <= 1.753408133983612) {
                                    y_pred += 0.0407338792737445;
                                }

                                else {
                                    y_pred += 0.19550550369116326;
                                }
                            }
                        }

                        else {
                            if (x[0] <= 0.5620526969432831) {
                                if (x[3] <= -0.5680941641330719) {
                                    y_pred += -0.11823426498140929;
                                }

                                else {
                                    y_pred += -0.1739812640621083;
                                }
                            }

                            else {
                                if (x[1] <= -0.8676215708255768) {
                                    y_pred += 0.24955872097109033;
                                }

                                else {
                                    y_pred += 0.04907915768871207;
                                }
                            }
                        }

                        // tree #3
                        if (x[2] <= -0.03520509973168373) {
                            if (x[3] <= -0.7549381852149963) {
                                if (x[3] <= -0.8521650731563568) {
                                    y_pred += 0.24236518406587093;
                                }

                                else {
                                    y_pred += -0.012048486010026449;
                                }
                            }

                            else {
                                if (x[0] <= -0.06766140274703503) {
                                    y_pred += -0.16613694230903744;
                                }

                                else {
                                    y_pred += -0.14989001782510392;
                                }
                            }
                        }

                        else {
                            if (x[0] <= -0.9614491164684296) {
                                if (x[1] <= 1.6983804106712341) {
                                    y_pred += 0.0684441659562176;
                                }

                                else {
                                    y_pred += 0.18754922273290742;
                                }
                            }

                            else {
                                if (x[3] <= 0.5509404540061951) {
                                    y_pred += -0.038875937794954324;
                                }

                                else {
                                    y_pred += 0.13020825145116227;
                                }
                            }
                        }

                        // tree #4
                        if (x[1] <= -0.1894696056842804) {
                            if (x[0] <= 0.5518960058689117) {
                                if (x[0] <= 0.08468877896666527) {
                                    y_pred += -0.1813679874815743;
                                }

                                else {
                                    y_pred += -0.12427642838287023;
                                }
                            }

                            else {
                                if (x[1] <= -0.8588361442089081) {
                                    y_pred += 0.24473185788236762;
                                }

                                else {
                                    y_pred += 0.018385634299183662;
                                }
                            }
                        }

                        else {
                            if (x[0] <= -0.8395690023899078) {
                                if (x[0] <= -1.113799273967743) {
                                    y_pred += 0.08369706972445146;
                                }

                                else {
                                    y_pred += 0.14883754851814812;
                                }
                            }

                            else {
                                if (x[0] <= -0.6059653759002686) {
                                    y_pred += 0.08850899422943298;
                                }

                                else {
                                    y_pred += -0.11418255444376328;
                                }
                            }
                        }

                        // tree #5
                        if (x[1] <= -0.06462481711059809) {
                            if (x[2] <= -0.7620432674884796) {
                                if (x[2] <= -0.8327891826629639) {
                                    y_pred += 0.25573094530526136;
                                }

                                else {
                                    y_pred += 0.023921957346380918;
                                }
                            }

                            else {
                                if (x[0] <= 0.07453209906816483) {
                                    y_pred += -0.17741219577103096;
                                }

                                else {
                                    y_pred += -0.1237982087501718;
                                }
                            }
                        }

                        else {
                            if (x[0] <= -0.9512924253940582) {
                                if (x[1] <= 1.7569787502288818) {
                                    y_pred += 0.035183248772054365;
                                }

                                else {
                                    y_pred += 0.19974552919182342;
                                }
                            }

                            else {
                                if (x[0] <= -0.6872187852859497) {
                                    y_pred += 0.14096423326305185;
                                }

                                else {
                                    y_pred += -0.059847622055301114;
                                }
                            }
                        }

                        // tree #6
                        if (x[3] <= -0.10246806591749191) {
                            if (x[3] <= -0.7788447141647339) {
                                if (x[1] <= -0.8708286881446838) {
                                    y_pred += 0.26514617370652566;
                                }

                                else {
                                    y_pred += 0.042819992650862504;
                                }
                            }

                            else {
                                if (x[3] <= -0.5761236846446991) {
                                    y_pred += -0.11749156364083196;
                                }

                                else {
                                    y_pred += -0.17970641243502555;
                                }
                            }
                        }

                        else {
                            if (x[2] <= 0.8825922310352325) {
                                if (x[2] <= 0.1773153319954872) {
                                    y_pred += -0.08341674412220146;
                                }

                                else {
                                    y_pred += 0.09468908043963858;
                                }
                            }

                            else {
                                if (x[1] <= 1.750350534915924) {
                                    y_pred += 0.07849854596957007;
                                }

                                else {
                                    y_pred += 0.2083620421131891;
                                }
                            }
                        }

                        // tree #7
                        if (x[1] <= -0.11945008113980293) {
                            if (x[1] <= -0.7873319387435913) {
                                if (x[1] <= -0.8647518754005432) {
                                    y_pred += 0.2615397953302539;
                                }

                                else {
                                    y_pred += 0.0457017969758331;
                                }
                            }

                            else {
                                if (x[0] <= 0.02374870516359806) {
                                    y_pred += -0.17853008919723468;
                                }

                                else {
                                    y_pred += -0.1274467956635921;
                                }
                            }
                        }

                        else {
                            if (x[0] <= -0.8700390160083771) {
                                if (x[1] <= 1.753408133983612) {
                                    y_pred += 0.022583751302682753;
                                }

                                else {
                                    y_pred += 0.195238947473252;
                                }
                            }

                            else {
                                if (x[0] <= -0.6161220371723175) {
                                    y_pred += 0.08267777500673684;
                                }

                                else {
                                    y_pred += -0.0937311064772064;
                                }
                            }
                        }

                        // tree #8
                        if (x[2] <= -0.12751547992229462) {
                            if (x[0] <= 0.5620526969432831) {
                                if (x[0] <= 0.08468877896666527) {
                                    y_pred += -0.1744415403023637;
                                }

                                else {
                                    y_pred += -0.11411716617986342;
                                }
                            }

                            else {
                                if (x[2] <= -0.8383294343948364) {
                                    y_pred += 0.26468988603022664;
                                }

                                else {
                                    y_pred += 0.029914336053256052;
                                }
                            }
                        }

                        else {
                            if (x[0] <= -0.8497256636619568) {
                                if (x[0] <= -1.2864629030227661) {
                                    y_pred += 0.08600854795727775;
                                }

                                else {
                                    y_pred += 0.1359947285348312;
                                }
                            }

                            else {
                                if (x[1] <= 0.4470881372690201) {
                                    y_pred += -0.08244300917008751;
                                }

                                else {
                                    y_pred += 0.109389179412761;
                                }
                            }
                        }

                        return y_pred / 8;
                    }

                protected:
                };
            }
        }
    }